{"outputs": ["severity", "condition"], "severity_classes": ["Normal", "Watch", "Alert"], "condition_classes": ["None", "Stress", "Dehydration", "Overexertion"], "features": ["heart_rate", "spo2", "temperature", "motion", "perfusion_index", "hrv"], "trees": [{"children_left": [1, 2, 3, 4, 5, -1, 7, -1, -1, -1, 11, -1, -1, 14, -1, -1, 17, -1, 19, 20, 21, 22, -1, -1, 25, -1, -1, 28, -1, -1, -1], "children_right": [16, 13, 10, 9, 6, -1, 8, -1, -1, -1, 12, -1, -1, 15, -1, -1, 18, -1, 30, 27, 24, 23, -1, -1, 26, -1, -1, 29, -1, -1, -1], "feature": [1, 4, 0, 1, 4, -2, 5, -2, -2, -2, 3, -2, -2, 0, -2, -2, 0, -2, 0, 5, 5, 1, -2, -2, 5, -2, -2, 4, -2, -2, -2], "threshold": [92.5704116821289, 1.2116873860359192, 119.99991226196289, 90.64312744140625, 1.0471084713935852, -2.0, 38.14384651184082, -2.0, -2.0, -2.0, 0.5147227346897125, -2.0, -2.0, 101.61623001098633, -2.0, -2.0, 99.99195098876953, -2.0, 126.45448303222656, 31.494065284729004, 28.63209056854248, 93.03419494628906, -2.0, -2.0, 28.768205642700195, -2.0, -2.0, 1.7925729751586914, -2.0, -2.0, -2.0], "value": [[[0.3272058823529412, 0.5367647058823529, 0.13602941176470587, 0.0], [0.3272058823529412, 0.1713235294117647, 0.3161764705882353, 0.18529411764705883]], [[0.04252199413489736, 0.6862170087976539, 0.27126099706744866, 0.0], [0.04252199413489736, 0.0, 0.6202346041055719, 0.33724340175953077]], [[0.0, 0.581447963800905, 0.41855203619909503, 0.0], [0.0, 0.0, 0.9570135746606335, 0.042986425339366516]], [[0.0, 1.0, 0.0, 0.0], [0.0, 0.0, 0.967479674796748, 0.032520325203252036]], [[0.0, 1.0, 0.0, 0.0], [0.0, 0.0, 0.9411764705882353, 0.058823529411764705]], [[0.0, 1.0, 0.0, 0.0], [0.0, 0.0, 1.0, 0.0]], [[0.0, 1.0, 0.0, 0.0], [0.0, 0.0, 0.6521739130434783, 0.34782608695652173]], [[0.0, 1.0, 0.0, 0.0], [0.0, 0.0, 0.42857142857142855, 0.5714285714285714]], [[0.0, 1.0, 0.0, 0.0], [0.0, 0.0, 1.0, 0.0]], [[0.0, 1.0, 0.0, 0.0], [0.0, 0.0, 1.0, 0.0]], [[0.0, 0.05612244897959184, 0.9438775510204082, 0.0], [0.0, 0.0, 0.9438775510204082, 0.05612244897959184]], [[0.0, 0.0, 1.0, 0.0], [0.0, 0.0, 1.0, 0.0]], [[0.0, 1.0, 0.0, 0.0], [0.0, 0.0, 0.0, 1.0]], [[0.12083333333333333, 0.8791666666666667, 0.0, 0.0], [0.12083333333333333, 0.0, 0.0, 0.8791666666666667]], [[1.0, 0.0, 0.0, 0.0], [1.0, 0.0, 0.0, 0.0]], [[0.0, 1.0, 0.0, 0.0], [0.0, 0.0, 0.0, 1.0]], [[0.6135693215339233, 0.3864306784660767, 0.0, 0.0], [0.6135693215339233, 0.34365781710914456, 0.01032448377581121, 0.032448377581120944]], [[1.0, 0.0, 0.0, 0.0], [1.0, 0.0, 0.0, 0.0]], [[0.0, 1.0, 0.0, 0.0], [0.0, 0.8893129770992366, 0.026717557251908396, 0.08396946564885496]], [[0.0, 1.0, 0.0, 0.0], [0.0, 0.9282868525896414, 0.027888446215139442, 0.043824701195219126]], [[0.0, 1.0, 0.0, 0.0], [0.0, 0.9708333333333333, 0.0, 0.029166666666666667]], [[0.0, 1.0, 0.0, 0.0], [0.0, 0.9779735682819384, 0.0, 0.022026431718061675]], [[0.0, 1.0, 0.0, 0.0], [0.0, 0.0, 0.0, 1.0]], [[0.0, 1.0, 0.0, 0.0], [0.0, 1.0, 0.0, 0.0]], [[0.0, 1.0, 0.0, 0.0], [0.0, 0.8461538461538461, 0.0, 0.15384615384615385]], [[0.0, 1.0, 0.0, 0.0], [0.0, 0.0, 0.0, 1.0]], [[0.0, 1.0, 0.0, 0.0], [0.0, 1.0, 0.0, 0.0]], [[0.0, 1.0, 0.0, 0.0], [0.0, 0.0, 0.6363636363636364, 0.36363636363636365]], [[0.0, 1.0, 0.0, 0.0], [0.0, 0.0, 1.0, 0.0]], [[0.0, 1.0, 0.0, 0.0], [0.0, 0.0, 0.0, 1.0]], [[0.0, 1.0, 0.0, 0.0], [0.0, 0.0, 0.0, 1.0]]]}, {"children_left": [1, 2, 3, 4, -1, 6, 7, -1, -1, 10, -1, -1, 13, 14, -1, -1, -1, -1, 19, -1, -1], "children_right": [18, 17, 12, 5, -1, 9, 8, -1, -1, 11, -1, -1, 16, 15, -1, -1, -1, -1, 20, -1, -1], "feature": [5, 2, 4, 4, -2, 5, 5, -2, -2, 3, -2, -2, 3, 5, -2, -2, -2, -2, 4, -2, -2], "threshold": [40.02350997924805, 38.01488494873047, 1.196693480014801, 1.011153221130371, -2.0, 27.80099582672119, 13.452635765075684, -2.0, -2.0, 0.5694160014390945, -2.0, -2.0, 0.49944230914115906, 34.97989749908447, -2.0, -2.0, -2.0, -2.0, 1.3491531610488892, -2.0, -2.0], "value": [[[0.35661764705882354, 0.5213235294117647, 0.12205882352941176, 0.0], [0.35661764705882354, 0.17941176470588235, 0.29705882352941176, 0.16691176470588234]], [[0.001282051282051282, 0.7858974358974359, 0.2128205128205128, 0.0], [0.001282051282051282, 0.3128205128205128, 0.39487179487179486, 0.29102564102564105]], [[0.0016286644951140066, 0.998371335504886, 0.0, 0.0], [0.0016286644951140066, 0.3973941368078176, 0.23127035830618892, 0.3697068403908795]], [[0.0, 1.0, 0.0, 0.0], [0.0, 0.04519774011299435, 0.8022598870056498, 0.15254237288135594]], [[0.0, 1.0, 0.0, 0.0], [0.0, 0.0, 1.0, 0.0]], [[0.0, 1.0, 0.0, 0.0], [0.0, 0.125, 0.453125, 0.421875]], [[0.0, 1.0, 0.0, 0.0], [0.0, 0.20689655172413793, 0.034482758620689655, 0.7586206896551724]], [[0.0, 1.0, 0.0, 0.0], [0.0, 1.0, 0.0, 0.0]], [[0.0, 1.0, 0.0, 0.0], [0.0, 0.08, 0.04, 0.88]], [[0.0, 1.0, 0.0, 0.0], [0.0, 0.05714285714285714, 0.8, 0.14285714285714285]], [[0.0, 1.0, 0.0, 0.0], [0.0, 0.06666666666666667, 0.9333333333333333, 0.0]], [[0.0, 1.0, 0.0, 0.0], [0.0, 0.0, 0.0, 1.0]], [[0.002288329519450801, 0.9977116704805492, 0.0, 0.0], [0.002288329519450801, 0.540045766590389, 0.0, 0.4576659038901602]], [[0.004219409282700422, 0.9957805907172996, 0.0, 0.0], [0.004219409282700422, 0.9957805907172996, 0.0, 0.0]], [[0.0, 1.0, 0.0, 0.0], [0.0, 1.0, 0.0, 0.0]], [[1.0, 0.0, 0.0, 0.0], [1.0, 0.0, 0.0, 0.0]], [[0.0, 1.0, 0.0, 0.0], [0.0, 0.0, 0.0, 1.0]], [[0.0, 0.0, 1.0, 0.0], [0.0, 0.0, 1.0, 0.0]], [[0.8344827586206897, 0.16551724137931034, 0.0, 0.0], [0.8344827586206897, 0.0, 0.16551724137931034, 0.0]], [[0.0, 1.0, 0.0, 0.0], [0.0, 0.0, 1.0, 0.0]], [[1.0, 0.0, 0.0, 0.0], [1.0, 0.0, 0.0, 0.0]]]}, {"children_left": [1, 2, 3, 4, -1, -1, -1, 8, 9, -1, -1, 12, -1, 14, -1, -1, 17, 18, -1, -1, 21, -1, 23, -1, 25, -1, -1], "children_right": [16, 7, 6, 5, -1, -1, -1, 11, 10, -1, -1, 13, -1, 15, -1, -1, 20, 19, -1, -1, 22, -1, 24, -1, 26, -1, -1], "feature": [4, 5, 3, 2, -2, -2, -2, 5, 0, -2, -2, 2, -2, 3, -2, -2, 3, 0, -2, -2, 5, -2, 2, -2, 1, -2, -2], "threshold": [1.196693480014801, 24.98288345336914, 0.503549113869667, 37.35344696044922, -2.0, -2.0, -2.0, 25.1417179107666, 116.10577011108398, -2.0, -2.0, 36.80448341369629, -2.0, 0.5427353978157043, -2.0, -2.0, 0.3012262135744095, 99.98705291748047, -2.0, -2.0, 14.929158210754395, -2.0, 36.46866989135742, -2.0, 93.04679107666016, -2.0, -2.0], "value": [[[0.3558823529411765, 0.5279411764705882, 0.1161764705882353, 0.0], [0.3558823529411765, 0.18382352941176472, 0.30073529411764705, 0.15955882352941175]], [[0.0, 0.6317016317016317, 0.3682983682983683, 0.0], [0.0, 0.011655011655011656, 0.9533799533799534, 0.03496503496503497]], [[0.0, 0.07058823529411765, 0.9294117647058824, 0.0], [0.0, 0.029411764705882353, 0.9294117647058824, 0.041176470588235294]], [[0.0, 0.03067484662576687, 0.9693251533742331, 0.0], [0.0, 0.03067484662576687, 0.9693251533742331, 0.0]], [[0.0, 1.0, 0.0, 0.0], [0.0, 1.0, 0.0, 0.0]], [[0.0, 0.0, 1.0, 0.0], [0.0, 0.0, 1.0, 0.0]], [[0.0, 1.0, 0.0, 0.0], [0.0, 0.0, 0.0, 1.0]], [[0.0, 1.0, 0.0, 0.0], [0.0, 0.0, 0.9691119691119691, 0.03088803088803089]], [[0.0, 1.0, 0.0, 0.0], [0.0, 0.0, 0.3333333333333333, 0.6666666666666666]], [[0.0, 1.0, 0.0, 0.0], [0.0, 0.0, 1.0, 0.0]], [[0.0, 1.0, 0.0, 0.0], [0.0, 0.0, 0.0, 1.0]], [[0.0, 1.0, 0.0, 0.0], [0.0, 0.0, 0.9765625, 0.0234375]], [[0.0, 1.0, 0.0, 0.0], [0.0, 0.0, 0.0, 1.0]], [[0.0, 1.0, 0.0, 0.0], [0.0, 0.0, 0.9803921568627451, 0.0196078431372549]], [[0.0, 1.0, 0.0, 0.0], [0.0, 0.0, 1.0, 0.0]], [[0.0, 1.0, 0.0, 0.0], [0.0, 0.0, 0.0, 1.0]], [[0.5198711063372717, 0.48012889366272826, 0.0, 0.0], [0.5198711063372717, 0.2631578947368421, 0.0, 0.21697099892588614]], [[0.7245508982035929, 0.2754491017964072, 0.0, 0.0], [0.7245508982035929, 0.2754491017964072, 0.0, 0.0]], [[1.0, 0.0, 0.0, 0.0], [1.0, 0.0, 0.0, 0.0]], [[0.0, 1.0, 0.0, 0.0], [0.0, 1.0, 0.0, 0.0]], [[0.0, 1.0, 0.0, 0.0], [0.0, 0.23193916349809887, 0.0, 0.7680608365019012]], [[0.0, 1.0, 0.0, 0.0], [0.0, 1.0, 0.0, 0.0]], [[0.0, 1.0, 0.0, 0.0], [0.0, 0.18218623481781376, 0.0, 0.8178137651821862]], [[0.0, 1.0, 0.0, 0.0], [0.0, 1.0, 0.0, 0.0]], [[0.0, 1.0, 0.0, 0.0], [0.0, 0.07339449541284404, 0.0, 0.926605504587156]], [[0.0, 1.0, 0.0, 0.0], [0.0, 0.0, 0.0, 1.0]], [[0.0, 1.0, 0.0, 0.0], [0.0, 1.0, 0.0, 0.0]]]}, {"children_left": [1, 2, 3, -1, 5, -1, -1, -1, 9, -1, 11, 12, -1, -1, -1], "children_right": [8, 7, 4, -1, 6, -1, -1, -1, 10, -1, 14, 13, -1, -1, -1], "feature": [5, 3, 2, -2, 0, -2, -2, -2, 1, -2, 3, 4, -2, -2, -2], "threshold": [40.02602767944336, 0.5000113397836685, 36.899335861206055, -2.0, 119.99991226196289, -2.0, -2.0, -2.0, 92.00744247436523, -2.0, 0.2991178184747696, 1.3297473192214966, -2.0, -2.0, -2.0], "value": [[[0.3382352941176471, 0.5367647058823529, 0.125, 0.0], [0.3382352941176471, 0.18970588235294117, 0.3, 0.17205882352941176]], [[0.0, 0.7875, 0.2125, 0.0], [0.0, 0.3225, 0.385, 0.2925]], [[0.0, 0.6996466431095406, 0.3003533568904594, 0.0], [0.0, 0.4558303886925795, 0.5441696113074205, 0.0]], [[0.0, 1.0, 0.0, 0.0], [0.0, 1.0, 0.0, 0.0]], [[0.0, 0.44805194805194803, 0.551948051948052, 0.0], [0.0, 0.0, 1.0, 0.0]], [[0.0, 1.0, 0.0, 0.0], [0.0, 0.0, 1.0, 0.0]], [[0.0, 0.0, 1.0, 0.0], [0.0, 0.0, 1.0, 0.0]], [[0.0, 1.0, 0.0, 0.0], [0.0, 0.0, 0.0, 1.0]], [[0.8214285714285714, 0.17857142857142858, 0.0, 0.0], [0.8214285714285714, 0.0, 0.17857142857142858, 0.0]], [[0.0, 1.0, 0.0, 0.0], [0.0, 0.0, 1.0, 0.0]], [[0.9583333333333334, 0.041666666666666664, 0.0, 0.0], [0.9583333333333334, 0.0, 0.041666666666666664, 0.0]], [[0.9643605870020965, 0.03563941299790356, 0.0, 0.0], [0.9643605870020965, 0.0, 0.03563941299790356, 0.0]], [[0.0, 1.0, 0.0, 0.0], [0.0, 0.0, 1.0, 0.0]], [[1.0, 0.0, 0.0, 0.0], [1.0, 0.0, 0.0, 0.0]], [[0.0, 1.0, 0.0, 0.0], [0.0, 0.0, 1.0, 0.0]]]}, {"children_left": [1, -1, 3, 4, 5, -1, -1, 8, -1, -1, -1], "children_right": [2, -1, 10, 7, 6, -1, -1, 9, -1, -1, -1], "feature": [0, -2, 2, 2, 1, -2, -2, 3, -2, -2, -2], "threshold": [99.99195098876953, -2.0, 38.02882957458496, 36.80008888244629, 92.99177169799805, -2.0, -2.0, 0.5003852397203445, -2.0, -2.0, -2.0], "value": [[[0.3382352941176471, 0.5441176470588235, 0.11764705882352941, 0.0], [0.3382352941176471, 0.17941176470588235, 0.30220588235294116, 0.1801470588235294]], [[1.0, 0.0, 0.0, 0.0], [1.0, 0.0, 0.0, 0.0]], [[0.0, 0.8222222222222222, 0.17777777777777778, 0.0], [0.0, 0.27111111111111114, 0.45666666666666667, 0.2722222222222222]], [[0.0, 1.0, 0.0, 0.0], [0.0, 0.32972972972972975, 0.33918918918918917, 0.3310810810810811]], [[0.0, 1.0, 0.0, 0.0], [0.0, 0.8327645051194539, 0.0, 0.16723549488054607]], [[0.0, 1.0, 0.0, 0.0], [0.0, 0.0, 0.0, 1.0]], [[0.0, 1.0, 0.0, 0.0], [0.0, 1.0, 0.0, 0.0]], [[0.0, 1.0, 0.0, 0.0], [0.0, 0.0, 0.5615212527964206, 0.43847874720357943]], [[0.0, 1.0, 0.0, 0.0], [0.0, 0.0, 1.0, 0.0]], [[0.0, 1.0, 0.0, 0.0], [0.0, 0.0, 0.0, 1.0]], [[0.0, 0.0, 1.0, 0.0], [0.0, 0.0, 1.0, 0.0]]]}, {"children_left": [1, 2, 3, 4, -1, -1, 7, -1, -1, -1, 11, 12, 13, 14, -1, -1, -1, -1, 19, 20, 21, -1, -1, -1, -1], "children_right": [10, 9, 6, 5, -1, -1, 8, -1, -1, -1, 18, 17, 16, 15, -1, -1, -1, -1, 24, 23, 22, -1, -1, -1, -1], "feature": [1, 2, 2, 1, -2, -2, 3, -2, -2, -2, 4, 1, 4, 3, -2, -2, -2, -2, 5, 2, 1, -2, -2, -2, -2], "threshold": [92.0844612121582, 38.02882957458496, 37.00353240966797, 91.9876480102539, -2.0, -2.0, 0.5016245990991592, -2.0, -2.0, -2.0, 1.4991688132286072, 93.03262710571289, 1.2111304998397827, 0.6820008307695389, -2.0, -2.0, -2.0, -2.0, 39.61589241027832, 36.80677032470703, 92.99234008789062, -2.0, -2.0, -2.0, -2.0], "value": [[[0.3522058823529412, 0.5286764705882353, 0.11911764705882352, 0.0], [0.3522058823529412, 0.17426470588235293, 0.3088235294117647, 0.16470588235294117]], [[0.007259528130671506, 0.6987295825771325, 0.294010889292196, 0.0], [0.007259528130671506, 0.0, 0.6823956442831216, 0.3103448275862069]], [[0.010282776349614395, 0.9897172236503856, 0.0, 0.0], [0.010282776349614395, 0.0, 0.5501285347043702, 0.43958868894601544]], [[0.06153846153846154, 0.9384615384615385, 0.0, 0.0], [0.06153846153846154, 0.0, 0.0, 0.9384615384615385]], [[0.0, 1.0, 0.0, 0.0], [0.0, 0.0, 0.0, 1.0]], [[1.0, 0.0, 0.0, 0.0], [1.0, 0.0, 0.0, 0.0]], [[0.0, 1.0, 0.0, 0.0], [0.0, 0.0, 0.6604938271604939, 0.3395061728395062]], [[0.0, 1.0, 0.0, 0.0], [0.0, 0.0, 1.0, 0.0]], [[0.0, 1.0, 0.0, 0.0], [0.0, 0.0, 0.0, 1.0]], [[0.0, 0.0, 1.0, 0.0], [0.0, 0.0, 1.0, 0.0]], [[0.5871446229913473, 0.41285537700865266, 0.0, 0.0], [0.5871446229913473, 0.29295426452410384, 0.054388133498145856, 0.06551297898640297]], [[0.0, 1.0, 0.0, 0.0], [0.0, 0.6231884057971014, 0.3188405797101449, 0.057971014492753624]], [[0.0, 1.0, 0.0, 0.0], [0.0, 0.0, 0.8461538461538461, 0.15384615384615385]], [[0.0, 1.0, 0.0, 0.0], [0.0, 0.0, 0.9777777777777777, 0.022222222222222223]], [[0.0, 1.0, 0.0, 0.0], [0.0, 0.0, 1.0, 0.0]], [[0.0, 1.0, 0.0, 0.0], [0.0, 0.0, 0.0, 1.0]], [[0.0, 1.0, 0.0, 0.0], [0.0, 0.0, 0.0, 1.0]], [[0.0, 1.0, 0.0, 0.0], [0.0, 1.0, 0.0, 0.0]], [[0.7078986587183308, 0.29210134128166915, 0.0, 0.0], [0.7078986587183308, 0.22503725782414308, 0.0, 0.06706408345752608]], [[0.0, 1.0, 0.0, 0.0], [0.0, 0.7704081632653061, 0.0, 0.22959183673469388]], [[0.0, 1.0, 0.0, 0.0], [0.0, 0.9263803680981595, 0.0, 0.0736196319018405]], [[0.0, 1.0, 0.0, 0.0], [0.0, 0.0, 0.0, 1.0]], [[0.0, 1.0, 0.0, 0.0], [0.0, 1.0, 0.0, 0.0]], [[0.0, 1.0, 0.0, 0.0], [0.0, 0.0, 0.0, 1.0]], [[1.0, 0.0, 0.0, 0.0], [1.0, 0.0, 0.0, 0.0]]]}, {"children_left": [1, 2, 3, 4, -1, 6, -1, -1, -1, 10, 11, 12, -1, -1, -1, -1, 17, 18, 19, -1, -1, 22, -1, 24, -1, -1, -1], "children_right": [16, 9, 8, 5, -1, 7, -1, -1, -1, 15, 14, 13, -1, -1, -1, -1, 26, 21, 20, -1, -1, 23, -1, 25, -1, -1, -1], "feature": [4, 0, 1, 5, -2, 3, -2, -2, -2, 3, 0, 1, -2, -2, -2, -2, 5, 5, 3, -2, -2, 2, -2, 1, -2, -2, -2], "threshold": [1.196693480014801, 120.052978515625, 93.19071960449219, 24.57982635498047, -2.0, 0.542741134762764, -2.0, -2.0, -2.0, 0.5152098387479782, 124.23441696166992, 90.62038803100586, -2.0, -2.0, -2.0, -2.0, 39.71915626525879, 29.167656898498535, 0.49986350536346436, -2.0, -2.0, 36.28846549987793, -2.0, 93.57544326782227, -2.0, -2.0, -2.0], "value": [[[0.32573529411764707, 0.5485294117647059, 0.12573529411764706, 0.0], [0.32573529411764707, 0.19191176470588237, 0.3088235294117647, 0.17352941176470588]], [[0.0, 0.6216814159292036, 0.37831858407079644, 0.0], [0.0, 0.033185840707964605, 0.9292035398230089, 0.03761061946902655]], [[0.0, 1.0, 0.0, 0.0], [0.0, 0.041044776119402986, 0.9291044776119403, 0.029850746268656716]], [[0.0, 1.0, 0.0, 0.0], [0.0, 0.0, 0.9688715953307393, 0.0311284046692607]], [[0.0, 1.0, 0.0, 0.0], [0.0, 0.0, 0.0, 1.0]], [[0.0, 1.0, 0.0, 0.0], [0.0, 0.0, 0.9841897233201581, 0.015810276679841896]], [[0.0, 1.0, 0.0, 0.0], [0.0, 0.0, 1.0, 0.0]], [[0.0, 1.0, 0.0, 0.0], [0.0, 0.0, 0.0, 1.0]], [[0.0, 1.0, 0.0, 0.0], [0.0, 1.0, 0.0, 0.0]], [[0.0, 0.07065217391304347, 0.9293478260869565, 0.0], [0.0, 0.021739130434782608, 0.9293478260869565, 0.04891304347826087]], [[0.0, 0.022857142857142857, 0.9771428571428571, 0.0], [0.0, 0.022857142857142857, 0.9771428571428571, 0.0]], [[0.0, 0.23529411764705882, 0.7647058823529411, 0.0], [0.0, 0.23529411764705882, 0.7647058823529411, 0.0]], [[0.0, 0.0, 1.0, 0.0], [0.0, 0.0, 1.0, 0.0]], [[0.0, 1.0, 0.0, 0.0], [0.0, 1.0, 0.0, 0.0]], [[0.0, 0.0, 1.0, 0.0], [0.0, 0.0, 1.0, 0.0]], [[0.0, 1.0, 0.0, 0.0], [0.0, 0.0, 0.0, 1.0]], [[0.4878854625550661, 0.512114537444934, 0.0, 0.0], [0.4878854625550661, 0.2709251101321586, 0.0, 0.24118942731277532]], [[0.0, 1.0, 0.0, 0.0], [0.0, 0.5290322580645161, 0.0, 0.47096774193548385]], [[0.0, 1.0, 0.0, 0.0], [0.0, 0.6558265582655827, 0.0, 0.34417344173441733]], [[0.0, 1.0, 0.0, 0.0], [0.0, 1.0, 0.0, 0.0]], [[0.0, 1.0, 0.0, 0.0], [0.0, 0.0, 0.0, 1.0]], [[0.0, 1.0, 0.0, 0.0], [0.0, 0.041666666666666664, 0.0, 0.9583333333333334]], [[0.0, 1.0, 0.0, 0.0], [0.0, 1.0, 0.0, 0.0]], [[0.0, 1.0, 0.0, 0.0], [0.0, 0.010752688172043012, 0.0, 0.989247311827957]], [[0.0, 1.0, 0.0, 0.0], [0.0, 0.0, 0.0, 1.0]], [[0.0, 1.0, 0.0, 0.0], [0.0, 1.0, 0.0, 0.0]], [[1.0, 0.0, 0.0, 0.0], [1.0, 0.0, 0.0, 0.0]]]}, {"children_left": [1, -1, 3, 4, -1, 6, 7, 8, -1, -1, 11, -1, -1, -1, 15, -1, -1], "children_right": [2, -1, 14, 5, -1, 13, 10, 9, -1, -1, 12, -1, -1, -1, 16, -1, -1], "feature": [0, -2, 4, 1, -2, 2, 2, 0, -2, -2, 3, -2, -2, -2, 1, -2, -2], "threshold": [99.99195098876953, -2.0, 1.196693480014801, 87.96362686157227, -2.0, 38.052167892456055, 36.9859676361084, 112.04032516479492, -2.0, -2.0, 0.542741134762764, -2.0, -2.0, -2.0, 93.03110885620117, -2.0, -2.0], "value": [[[0.35441176470588237, 0.5272058823529412, 0.11838235294117647, 0.0], [0.35441176470588237, 0.16911764705882354, 0.30220588235294116, 0.17426470588235293]], [[1.0, 0.0, 0.0, 0.0], [1.0, 0.0, 0.0, 0.0]], [[0.0, 0.816628701594533, 0.18337129840546698, 0.0], [0.0, 0.2619589977220957, 0.46810933940774485, 0.26993166287015946]], [[0.0, 0.628175519630485, 0.371824480369515, 0.0], [0.0, 0.023094688221709007, 0.9491916859122402, 0.02771362586605081]], [[0.0, 0.0, 1.0, 0.0], [0.0, 0.0, 1.0, 0.0]], [[0.0, 0.8802588996763754, 0.11974110032362459, 0.0], [0.0, 0.032362459546925564, 0.9288025889967637, 0.038834951456310676]], [[0.0, 1.0, 0.0, 0.0], [0.0, 0.03676470588235294, 0.9191176470588235, 0.04411764705882353]], [[0.0, 1.0, 0.0, 0.0], [0.0, 0.625, 0.0, 0.375]], [[0.0, 1.0, 0.0, 0.0], [0.0, 1.0, 0.0, 0.0]], [[0.0, 1.0, 0.0, 0.0], [0.0, 0.3333333333333333, 0.0, 0.6666666666666666]], [[0.0, 1.0, 0.0, 0.0], [0.0, 0.0, 0.9765625, 0.0234375]], [[0.0, 1.0, 0.0, 0.0], [0.0, 0.0, 1.0, 0.0]], [[0.0, 1.0, 0.0, 0.0], [0.0, 0.0, 0.0, 1.0]], [[0.0, 0.0, 1.0, 0.0], [0.0, 0.0, 1.0, 0.0]], [[0.0, 1.0, 0.0, 0.0], [0.0, 0.4943820224719101, 0.0, 0.5056179775280899]], [[0.0, 1.0, 0.0, 0.0], [0.0, 0.0, 0.0, 1.0]], [[0.0, 1.0, 0.0, 0.0], [0.0, 1.0, 0.0, 0.0]]]}, {"children_left": [1, 2, 3, 4, 5, -1, -1, 8, -1, 10, -1, -1, 13, -1, -1, 16, 17, -1, -1, -1, 21, 22, -1, -1, 25, -1, 27, 28, -1, -1, 31, 32, -1, -1, 35, -1, -1], "children_right": [20, 15, 12, 7, 6, -1, -1, 9, -1, 11, -1, -1, 14, -1, -1, 19, 18, -1, -1, -1, 24, 23, -1, -1, 26, -1, 30, 29, -1, -1, 34, 33, -1, -1, 36, -1, -1], "feature": [4, 0, 1, 5, 2, -2, -2, 4, -2, 1, -2, -2, 1, -2, -2, 2, 2, -2, -2, -2, 3, 0, -2, -2, 2, -2, 0, 1, -2, -2, 2, 1, -2, -2, 3, -2, -2], "threshold": [1.1920037865638733, 120.79383850097656, 92.98419952392578, 24.584009170532227, 38.60324668884277, -2.0, -2.0, 1.0620951652526855, -2.0, 88.37152099609375, -2.0, -2.0, 93.1972885131836, -2.0, -2.0, 37.87995529174805, 36.807926177978516, -2.0, -2.0, -2.0, 0.30097006261348724, 100.03884887695312, -2.0, -2.0, 36.49648666381836, -2.0, 105.4516830444336, 93.14840698242188, -2.0, -2.0, 36.680599212646484, 92.78429412841797, -2.0, -2.0, 0.5006816685199738, -2.0, -2.0], "value": [[[0.32941176470588235, 0.549264705882353, 0.1213235294117647, 0.0], [0.32941176470588235, 0.19779411764705881, 0.29191176470588237, 0.18088235294117647]], [[0.0, 0.6108490566037735, 0.3891509433962264, 0.0], [0.0, 0.0330188679245283, 0.9363207547169812, 0.030660377358490566]], [[0.0, 0.9960159362549801, 0.00398406374501992, 0.0], [0.0, 0.04780876494023904, 0.9282868525896414, 0.02390438247011952]], [[0.0, 0.9957983193277311, 0.004201680672268907, 0.0], [0.0, 0.0, 0.9789915966386554, 0.02100840336134454]], [[0.0, 0.75, 0.25, 0.0], [0.0, 0.0, 0.25, 0.75]], [[0.0, 1.0, 0.0, 0.0], [0.0, 0.0, 0.0, 1.0]], [[0.0, 0.0, 1.0, 0.0], [0.0, 0.0, 1.0, 0.0]], [[0.0, 1.0, 0.0, 0.0], [0.0, 0.0, 0.9914529914529915, 0.008547008547008548]], [[0.0, 1.0, 0.0, 0.0], [0.0, 0.0, 1.0, 0.0]], [[0.0, 1.0, 0.0, 0.0], [0.0, 0.0, 0.9333333333333333, 0.06666666666666667]], [[0.0, 1.0, 0.0, 0.0], [0.0, 0.0, 0.6666666666666666, 0.3333333333333333]], [[0.0, 1.0, 0.0, 0.0], [0.0, 0.0, 0.9629629629629629, 0.037037037037037035]], [[0.0, 1.0, 0.0, 0.0], [0.0, 0.9230769230769231, 0.0, 0.07692307692307693]], [[0.0, 1.0, 0.0, 0.0], [0.0, 0.0, 0.0, 1.0]], [[0.0, 1.0, 0.0, 0.0], [0.0, 1.0, 0.0, 0.0]], [[0.0, 0.05202312138728324, 0.9479768786127167, 0.0], [0.0, 0.011560693641618497, 0.9479768786127167, 0.04046242774566474]], [[0.0, 1.0, 0.0, 0.0], [0.0, 0.2222222222222222, 0.0, 0.7777777777777778]], [[0.0, 1.0, 0.0, 0.0], [0.0, 1.0, 0.0, 0.0]], [[0.0, 1.0, 0.0, 0.0], [0.0, 0.0, 0.0, 1.0]], [[0.0, 0.0, 1.0, 0.0], [0.0, 0.0, 1.0, 0.0]], [[0.47863247863247865, 0.5213675213675214, 0.0, 0.0], [0.47863247863247865, 0.2724358974358974, 0.0, 0.24893162393162394]], [[0.6924265842349304, 0.3075734157650695, 0.0, 0.0], [0.6924265842349304, 0.3075734157650695, 0.0, 0.0]], [[1.0, 0.0, 0.0, 0.0], [1.0, 0.0, 0.0, 0.0]], [[0.0, 1.0, 0.0, 0.0], [0.0, 1.0, 0.0, 0.0]], [[0.0, 1.0, 0.0, 0.0], [0.0, 0.19377162629757785, 0.0, 0.8062283737024222]], [[0.0, 1.0, 0.0, 0.0], [0.0, 1.0, 0.0, 0.0]], [[0.0, 1.0, 0.0, 0.0], [0.0, 0.052845528455284556, 0.0, 0.9471544715447154]], [[0.0, 1.0, 0.0, 0.0], [0.0, 0.7142857142857143, 0.0, 0.2857142857142857]], [[0.0, 1.0, 0.0, 0.0], [0.0, 0.0, 0.0, 1.0]], [[0.0, 1.0, 0.0, 0.0], [0.0, 1.0, 0.0, 0.0]], [[0.0, 1.0, 0.0, 0.0], [0.0, 0.03347280334728033, 0.0, 0.9665271966527197]], [[0.0, 1.0, 0.0, 0.0], [0.0, 0.20689655172413793, 0.0, 0.7931034482758621]], [[0.0, 1.0, 0.0, 0.0], [0.0, 0.0, 0.0, 1.0]], [[0.0, 1.0, 0.0, 0.0], [0.0, 1.0, 0.0, 0.0]], [[0.0, 1.0, 0.0, 0.0], [0.0, 0.009523809523809525, 0.0, 0.9904761904761905]], [[0.0, 1.0, 0.0, 0.0], [0.0, 1.0, 0.0, 0.0]], [[0.0, 1.0, 0.0, 0.0], [0.0, 0.0, 0.0, 1.0]]]}, {"children_left": [1, 2, 3, -1, -1, 6, 7, -1, 9, -1, 11, -1, -1, 14, 15, -1, 17, -1, -1, -1, 21, -1, 23, -1, -1], "children_right": [20, 5, 4, -1, -1, 13, 8, -1, 10, -1, 12, -1, -1, 19, 16, -1, 18, -1, -1, -1, 22, -1, 24, -1, -1], "feature": [4, 4, 5, -2, -2, 5, 5, -2, 2, -2, 3, -2, -2, 5, 2, -2, 3, -2, -2, -2, 0, -2, 3, -2, -2], "threshold": [1.2011183500289917, 0.9883072972297668, 25.059432983398438, -2.0, -2.0, 28.60559844970703, 16.682921409606934, -2.0, 36.50235557556152, -2.0, 0.4001990407705307, -2.0, -2.0, 38.393192291259766, 36.80707550048828, -2.0, 0.5597411841154099, -2.0, -2.0, -2.0, 100.0129280090332, -2.0, 0.5000113397836685, -2.0, -2.0], "value": [[[0.3411764705882353, 0.5360294117647059, 0.12279411764705882, 0.0], [0.3411764705882353, 0.1875, 0.3058823529411765, 0.16544117647058823]], [[0.0, 0.6263982102908278, 0.37360178970917224, 0.0], [0.0, 0.029082774049217, 0.930648769574944, 0.040268456375838924]], [[0.0, 0.5361111111111111, 0.4638888888888889, 0.0], [0.0, 0.0, 1.0, 0.0]], [[0.0, 0.0, 1.0, 0.0], [0.0, 0.0, 1.0, 0.0]], [[0.0, 1.0, 0.0, 0.0], [0.0, 0.0, 1.0, 0.0]], [[0.0, 1.0, 0.0, 0.0], [0.0, 0.14942528735632185, 0.6436781609195402, 0.20689655172413793]], [[0.0, 1.0, 0.0, 0.0], [0.0, 0.38235294117647056, 0.17647058823529413, 0.4411764705882353]], [[0.0, 1.0, 0.0, 0.0], [0.0, 1.0, 0.0, 0.0]], [[0.0, 1.0, 0.0, 0.0], [0.0, 0.2222222222222222, 0.2222222222222222, 0.5555555555555556]], [[0.0, 1.0, 0.0, 0.0], [0.0, 1.0, 0.0, 0.0]], [[0.0, 1.0, 0.0, 0.0], [0.0, 0.0, 0.2857142857142857, 0.7142857142857143]], [[0.0, 1.0, 0.0, 0.0], [0.0, 0.0, 1.0, 0.0]], [[0.0, 1.0, 0.0, 0.0], [0.0, 0.0, 0.0, 1.0]], [[0.0, 1.0, 0.0, 0.0], [0.0, 0.0, 0.9433962264150944, 0.05660377358490566]], [[0.0, 1.0, 0.0, 0.0], [0.0, 0.0, 0.8888888888888888, 0.1111111111111111]], [[0.0, 1.0, 0.0, 0.0], [0.0, 0.0, 0.0, 1.0]], [[0.0, 1.0, 0.0, 0.0], [0.0, 0.0, 0.9230769230769231, 0.07692307692307693]], [[0.0, 1.0, 0.0, 0.0], [0.0, 0.0, 1.0, 0.0]], [[0.0, 1.0, 0.0, 0.0], [0.0, 0.0, 0.0, 1.0]], [[0.0, 1.0, 0.0, 0.0], [0.0, 0.0, 1.0, 0.0]], [[0.5082146768893757, 0.49178532311062434, 0.0, 0.0], [0.5082146768893757, 0.26506024096385544, 0.0, 0.2267250821467689]], [[1.0, 0.0, 0.0, 0.0], [1.0, 0.0, 0.0, 0.0]], [[0.0, 1.0, 0.0, 0.0], [0.0, 0.5389755011135857, 0.0, 0.4610244988864143]], [[0.0, 1.0, 0.0, 0.0], [0.0, 1.0, 0.0, 0.0]], [[0.0, 1.0, 0.0, 0.0], [0.0, 0.0, 0.0, 1.0]]]}, {"children_left": [1, -1, 3, 4, 5, 6, -1, -1, -1, -1, 11, 12, -1, -1, 15, 16, 17, -1, -1, -1, -1], "children_right": [2, -1, 10, 9, 8, 7, -1, -1, -1, -1, 14, 13, -1, -1, 20, 19, 18, -1, -1, -1, -1], "feature": [0, -2, 4, 2, 3, 1, -2, -2, -2, -2, 2, 1, -2, -2, 5, 3, 1, -2, -2, -2, -2], "threshold": [99.99932861328125, -2.0, 1.1651915311813354, 38.016414642333984, 0.5042989701032639, 93.19379425048828, -2.0, -2.0, -2.0, -2.0, 36.740230560302734, 92.9812126159668, -2.0, -2.0, 39.6898250579834, 0.5025434494018555, 92.16029739379883, -2.0, -2.0, -2.0, -2.0], "value": [[[0.3360294117647059, 0.5308823529411765, 0.13308823529411765, 0.0], [0.3360294117647059, 0.18455882352941178, 0.3220588235294118, 0.15735294117647058]], [[1.0, 0.0, 0.0, 0.0], [1.0, 0.0, 0.0, 0.0]], [[0.0, 0.7995570321151716, 0.20044296788482835, 0.0], [0.0, 0.2779623477297896, 0.4850498338870432, 0.2369878183831672]], [[0.0, 0.5968819599109132, 0.40311804008908686, 0.0], [0.0, 0.022271714922048998, 0.9576837416481069, 0.0200445434298441]], [[0.0, 1.0, 0.0, 0.0], [0.0, 0.03731343283582089, 0.9291044776119403, 0.033582089552238806]], [[0.0, 1.0, 0.0, 0.0], [0.0, 0.03861003861003861, 0.9613899613899614, 0.0]], [[0.0, 1.0, 0.0, 0.0], [0.0, 0.0, 1.0, 0.0]], [[0.0, 1.0, 0.0, 0.0], [0.0, 1.0, 0.0, 0.0]], [[0.0, 1.0, 0.0, 0.0], [0.0, 0.0, 0.0, 1.0]], [[0.0, 0.0, 1.0, 0.0], [0.0, 0.0, 1.0, 0.0]], [[0.0, 1.0, 0.0, 0.0], [0.0, 0.5308370044052864, 0.01762114537444934, 0.45154185022026433]], [[0.0, 1.0, 0.0, 0.0], [0.0, 0.8503649635036497, 0.0, 0.14963503649635038]], [[0.0, 1.0, 0.0, 0.0], [0.0, 0.0, 0.0, 1.0]], [[0.0, 1.0, 0.0, 0.0], [0.0, 1.0, 0.0, 0.0]], [[0.0, 1.0, 0.0, 0.0], [0.0, 0.044444444444444446, 0.044444444444444446, 0.9111111111111111]], [[0.0, 1.0, 0.0, 0.0], [0.0, 0.045714285714285714, 0.017142857142857144, 0.9371428571428572]], [[0.0, 1.0, 0.0, 0.0], [0.0, 0.7272727272727273, 0.2727272727272727, 0.0]], [[0.0, 1.0, 0.0, 0.0], [0.0, 0.0, 1.0, 0.0]], [[0.0, 1.0, 0.0, 0.0], [0.0, 1.0, 0.0, 0.0]], [[0.0, 1.0, 0.0, 0.0], [0.0, 0.0, 0.0, 1.0]], [[0.0, 1.0, 0.0, 0.0], [0.0, 0.0, 1.0, 0.0]]]}, {"children_left": [1, 2, 3, -1, -1, 6, 7, 8, -1, 10, -1, -1, -1, -1, 15, -1, -1], "children_right": [14, 5, 4, -1, -1, 13, 12, 9, -1, 11, -1, -1, -1, -1, 16, -1, -1], "feature": [5, 4, 5, -2, -2, 1, 2, 2, -2, 2, -2, -2, -2, -2, 4, -2, -2], "threshold": [39.952043533325195, 1.011153221130371, 25.010786056518555, -2.0, -2.0, 93.02363586425781, 37.7958927154541, 37.00204277038574, -2.0, 37.40748596191406, -2.0, -2.0, -2.0, -2.0, 1.3597524762153625, -2.0, -2.0], "value": [[[0.31838235294117645, 0.5507352941176471, 0.13088235294117648, 0.0], [0.31838235294117645, 0.18970588235294117, 0.30514705882352944, 0.18676470588235294]], [[0.0, 0.784503631961259, 0.21549636803874092, 0.0], [0.0, 0.31234866828087166, 0.3801452784503632, 0.3075060532687651]], [[0.0, 0.36428571428571427, 0.6357142857142857, 0.0], [0.0, 0.0, 1.0, 0.0]], [[0.0, 0.0, 1.0, 0.0], [0.0, 0.0, 1.0, 0.0]], [[0.0, 1.0, 0.0, 0.0], [0.0, 0.0, 1.0, 0.0]], [[0.0, 1.0, 0.0, 0.0], [0.0, 0.4725274725274725, 0.06227106227106227, 0.4652014652014652]], [[0.0, 1.0, 0.0, 0.0], [0.0, 0.0, 0.11805555555555555, 0.8819444444444444]], [[0.0, 1.0, 0.0, 0.0], [0.0, 0.0, 0.10247349823321555, 0.8975265017667845]], [[0.0, 1.0, 0.0, 0.0], [0.0, 0.0, 0.0, 1.0]], [[0.0, 1.0, 0.0, 0.0], [0.0, 0.0, 0.15760869565217392, 0.842391304347826]], [[0.0, 1.0, 0.0, 0.0], [0.0, 0.0, 0.26595744680851063, 0.7340425531914894]], [[0.0, 1.0, 0.0, 0.0], [0.0, 0.0, 0.044444444444444446, 0.9555555555555556]], [[0.0, 1.0, 0.0, 0.0], [0.0, 0.0, 1.0, 0.0]], [[0.0, 1.0, 0.0, 0.0], [0.0, 1.0, 0.0, 0.0]], [[0.8108614232209738, 0.1891385767790262, 0.0, 0.0], [0.8108614232209738, 0.0, 0.1891385767790262, 0.0]], [[0.0, 1.0, 0.0, 0.0], [0.0, 0.0, 1.0, 0.0]], [[1.0, 0.0, 0.0, 0.0], [1.0, 0.0, 0.0, 0.0]]]}, {"children_left": [1, -1, 3, 4, 5, -1, -1, -1, -1], "children_right": [2, -1, 8, 7, 6, -1, -1, -1, -1], "feature": [0, -2, 2, 3, 2, -2, -2, -2, -2], "threshold": [100.0129280090332, -2.0, 38.016414642333984, 0.5003795027732849, 36.901100158691406, -2.0, -2.0, -2.0, -2.0], "value": [[[0.3514705882352941, 0.5176470588235295, 0.13088235294117648, 0.0], [0.3514705882352941, 0.16544117647058823, 0.3058823529411765, 0.17720588235294119]], [[1.0, 0.0, 0.0, 0.0], [1.0, 0.0, 0.0, 0.0]], [[0.0, 0.7981859410430839, 0.2018140589569161, 0.0], [0.0, 0.25510204081632654, 0.47165532879818595, 0.2732426303854875]], [[0.0, 1.0, 0.0, 0.0], [0.0, 0.3196022727272727, 0.3380681818181818, 0.34232954545454547]], [[0.0, 1.0, 0.0, 0.0], [0.0, 0.48596112311015116, 0.5140388768898488, 0.0]], [[0.0, 1.0, 0.0, 0.0], [0.0, 1.0, 0.0, 0.0]], [[0.0, 1.0, 0.0, 0.0], [0.0, 0.0, 1.0, 0.0]], [[0.0, 1.0, 0.0, 0.0], [0.0, 0.0, 0.0, 1.0]], [[0.0, 0.0, 1.0, 0.0], [0.0, 0.0, 1.0, 0.0]]]}, {"children_left": [1, 2, 3, 4, -1, 6, -1, -1, 9, -1, -1, 12, -1, -1, 15, 16, 17, -1, 19, -1, 21, -1, -1, 24, 25, -1, -1, 28, -1, -1, 31, 32, -1, -1, 35, -1, 37, -1, -1], "children_right": [14, 11, 8, 5, -1, 7, -1, -1, 10, -1, -1, 13, -1, -1, 30, 23, 18, -1, 20, -1, 22, -1, -1, 27, 26, -1, -1, 29, -1, -1, 34, 33, -1, -1, 36, -1, 38, -1, -1], "feature": [1, 4, 0, 2, -2, 3, -2, -2, 2, -2, -2, 3, -2, -2, 3, 2, 1, -2, 2, -2, 4, -2, -2, 5, 1, -2, -2, 4, -2, -2, 2, 3, -2, -2, 5, -2, 2, -2, -2], "threshold": [92.00744247436523, 1.1210509538650513, 119.98872375488281, 37.581626892089844, -2.0, 0.5782790929079056, -2.0, -2.0, 37.81349182128906, -2.0, -2.0, 0.4141691029071808, -2.0, -2.0, 0.30097006261348724, 36.12323570251465, 92.72882843017578, -2.0, 36.10073280334473, -2.0, 1.5948755145072937, -2.0, -2.0, 39.43291473388672, 93.02188491821289, -2.0, -2.0, 1.3297473192214966, -2.0, -2.0, 36.79740524291992, 0.5330645889043808, -2.0, -2.0, 37.16421318054199, -2.0, 37.70250129699707, -2.0, -2.0], "value": [[[0.3397058823529412, 0.525, 0.13529411764705881, 0.0], [0.3397058823529412, 0.17205882352941176, 0.3, 0.18823529411764706]], [[0.0, 0.6749116607773852, 0.3250883392226148, 0.0], [0.0, 0.0, 0.6537102473498233, 0.3462897526501767]], [[0.0, 0.4972677595628415, 0.5027322404371585, 0.0], [0.0, 0.0, 0.9836065573770492, 0.01639344262295082]], [[0.0, 1.0, 0.0, 0.0], [0.0, 0.0, 0.9832402234636871, 0.01675977653631285]], [[0.0, 1.0, 0.0, 0.0], [0.0, 0.0, 1.0, 0.0]], [[0.0, 1.0, 0.0, 0.0], [0.0, 0.0, 0.958904109589041, 0.0410958904109589]], [[0.0, 1.0, 0.0, 0.0], [0.0, 0.0, 1.0, 0.0]], [[0.0, 1.0, 0.0, 0.0], [0.0, 0.0, 0.0, 1.0]], [[0.0, 0.016042780748663103, 0.983957219251337, 0.0], [0.0, 0.0, 0.983957219251337, 0.016042780748663103]], [[0.0, 1.0, 0.0, 0.0], [0.0, 0.0, 0.0, 1.0]], [[0.0, 0.0, 1.0, 0.0], [0.0, 0.0, 1.0, 0.0]], [[0.0, 1.0, 0.0, 0.0], [0.0, 0.0, 0.05, 0.95]], [[0.0, 1.0, 0.0, 0.0], [0.0, 0.0, 1.0, 0.0]], [[0.0, 1.0, 0.0, 0.0], [0.0, 0.0, 0.0, 1.0]], [[0.5818639798488665, 0.4181360201511335, 0.0, 0.0], [0.5818639798488665, 0.2947103274559194, 0.04785894206549118, 0.07556675062972293]], [[0.6875, 0.3125, 0.0, 0.0], [0.6875, 0.25892857142857145, 0.05357142857142857, 0.0]], [[0.0410958904109589, 0.958904109589041, 0.0, 0.0], [0.0410958904109589, 0.958904109589041, 0.0, 0.0]], [[1.0, 0.0, 0.0, 0.0], [1.0, 0.0, 0.0, 0.0]], [[0.027777777777777776, 0.9722222222222222, 0.0, 0.0], [0.027777777777777776, 0.9722222222222222, 0.0, 0.0]], [[0.0, 1.0, 0.0, 0.0], [0.0, 1.0, 0.0, 0.0]], [[0.2857142857142857, 0.7142857142857143, 0.0, 0.0], [0.2857142857142857, 0.7142857142857143, 0.0, 0.0]], [[0.0, 1.0, 0.0, 0.0], [0.0, 1.0, 0.0, 0.0]], [[1.0, 0.0, 0.0, 0.0], [1.0, 0.0, 0.0, 0.0]], [[0.7662771285475793, 0.2337228714524207, 0.0, 0.0], [0.7662771285475793, 0.17362270450751252, 0.06010016694490818, 0.0]], [[0.0, 1.0, 0.0, 0.0], [0.0, 0.8253968253968254, 0.1746031746031746, 0.0]], [[0.0, 1.0, 0.0, 0.0], [0.0, 0.0, 1.0, 0.0]], [[0.0, 1.0, 0.0, 0.0], [0.0, 1.0, 0.0, 0.0]], [[0.9704016913319239, 0.02959830866807611, 0.0, 0.0], [0.9704016913319239, 0.0, 0.02959830866807611, 0.0]], [[0.0, 1.0, 0.0, 0.0], [0.0, 0.0, 1.0, 0.0]], [[1.0, 0.0, 0.0, 0.0], [1.0, 0.0, 0.0, 0.0]], [[0.0, 1.0, 0.0, 0.0], [0.0, 0.4918032786885246, 0.01639344262295082, 0.4918032786885246]], [[0.0, 1.0, 0.0, 0.0], [0.0, 0.8571428571428571, 0.0, 0.14285714285714285]], [[0.0, 1.0, 0.0, 0.0], [0.0, 1.0, 0.0, 0.0]], [[0.0, 1.0, 0.0, 0.0], [0.0, 0.0, 0.0, 1.0]], [[0.0, 1.0, 0.0, 0.0], [0.0, 0.0, 0.038461538461538464, 0.9615384615384616]], [[0.0, 1.0, 0.0, 0.0], [0.0, 0.0, 0.0, 1.0]], [[0.0, 1.0, 0.0, 0.0], [0.0, 0.0, 0.3333333333333333, 0.6666666666666666]], [[0.0, 1.0, 0.0, 0.0], [0.0, 0.0, 0.0, 1.0]], [[0.0, 1.0, 0.0, 0.0], [0.0, 0.0, 1.0, 0.0]]]}, {"children_left": [1, 2, 3, -1, -1, -1, 7, 8, 9, 10, -1, 12, -1, -1, -1, 16, -1, 18, -1, -1, 21, -1, 23, -1, -1], "children_right": [6, 5, 4, -1, -1, -1, 20, 15, 14, 11, -1, 13, -1, -1, -1, 17, -1, 19, -1, -1, 22, -1, 24, -1, -1], "feature": [1, 3, 2, -2, -2, -2, 4, 4, 2, 5, -2, 4, -2, -2, -2, 2, -2, 3, -2, -2, 0, -2, 1, -2, -2], "threshold": [92.00527572631836, 0.5045356601476669, 38.01425361633301, -2.0, -2.0, -2.0, 1.4991688132286072, 1.1332884430885315, 36.99082946777344, 17.538467407226562, -2.0, 1.0404856204986572, -2.0, -2.0, -2.0, 36.94058609008789, -2.0, 0.4187316671013832, -2.0, -2.0, 99.98705291748047, -2.0, 92.99234008789062, -2.0, -2.0], "value": [[[0.34558823529411764, 0.5279411764705882, 0.1264705882352941, 0.0], [0.34558823529411764, 0.1875, 0.3095588235294118, 0.15735294117647058]], [[0.0, 0.6748582230623819, 0.32514177693761814, 0.0], [0.0, 0.0, 0.6994328922495274, 0.3005671077504726]], [[0.0, 0.5351351351351351, 0.4648648648648649, 0.0], [0.0, 0.0, 1.0, 0.0]], [[0.0, 1.0, 0.0, 0.0], [0.0, 0.0, 1.0, 0.0]], [[0.0, 0.0, 1.0, 0.0], [0.0, 0.0, 1.0, 0.0]], [[0.0, 1.0, 0.0, 0.0], [0.0, 0.0, 0.0, 1.0]], [[0.5655836341756919, 0.43441636582430804, 0.0, 0.0], [0.5655836341756919, 0.30685920577617326, 0.061371841155234655, 0.06618531889290012]], [[0.0, 1.0, 0.0, 0.0], [0.0, 0.5255474452554745, 0.3722627737226277, 0.10218978102189781]], [[0.0, 1.0, 0.0, 0.0], [0.0, 0.12280701754385964, 0.8421052631578947, 0.03508771929824561]], [[0.0, 1.0, 0.0, 0.0], [0.0, 0.7777777777777778, 0.0, 0.2222222222222222]], [[0.0, 1.0, 0.0, 0.0], [0.0, 1.0, 0.0, 0.0]], [[0.0, 1.0, 0.0, 0.0], [0.0, 0.3333333333333333, 0.0, 0.6666666666666666]], [[0.0, 1.0, 0.0, 0.0], [0.0, 0.0, 0.0, 1.0]], [[0.0, 1.0, 0.0, 0.0], [0.0, 1.0, 0.0, 0.0]], [[0.0, 1.0, 0.0, 0.0], [0.0, 0.0, 1.0, 0.0]], [[0.0, 1.0, 0.0, 0.0], [0.0, 0.8125, 0.0375, 0.15]], [[0.0, 1.0, 0.0, 0.0], [0.0, 1.0, 0.0, 0.0]], [[0.0, 1.0, 0.0, 0.0], [0.0, 0.0, 0.2, 0.8]], [[0.0, 1.0, 0.0, 0.0], [0.0, 0.0, 1.0, 0.0]], [[0.0, 1.0, 0.0, 0.0], [0.0, 0.0, 0.0, 1.0]], [[0.6772334293948127, 0.3227665706051873, 0.0, 0.0], [0.6772334293948127, 0.26368876080691644, 0.0, 0.059077809798270896]], [[1.0, 0.0, 0.0, 0.0], [1.0, 0.0, 0.0, 0.0]], [[0.0, 1.0, 0.0, 0.0], [0.0, 0.8169642857142857, 0.0, 0.18303571428571427]], [[0.0, 1.0, 0.0, 0.0], [0.0, 0.0, 0.0, 1.0]], [[0.0, 1.0, 0.0, 0.0], [0.0, 1.0, 0.0, 0.0]]]}, {"children_left": [1, -1, 3, 4, 5, -1, -1, -1, -1], "children_right": [2, -1, 8, 7, 6, -1, -1, -1, -1], "feature": [0, -2, 1, 2, 3, -2, -2, -2, -2], "threshold": [99.99195098876953, -2.0, 93.03419494628906, 38.02882957458496, 0.5003852397203445, -2.0, -2.0, -2.0, -2.0], "value": [[[0.36911764705882355, 0.5286764705882353, 0.10220588235294117, 0.0], [0.36911764705882355, 0.17573529411764705, 0.2897058823529412, 0.16544117647058823]], [[1.0, 0.0, 0.0, 0.0], [1.0, 0.0, 0.0, 0.0]], [[0.0, 0.837995337995338, 0.16200466200466201, 0.0], [0.0, 0.27855477855477856, 0.4592074592074592, 0.26223776223776224]], [[0.0, 0.7754442649434572, 0.2245557350565428, 0.0], [0.0, 0.0, 0.6365105008077544, 0.36348949919224555]], [[0.0, 1.0, 0.0, 0.0], [0.0, 0.0, 0.53125, 0.46875]], [[0.0, 1.0, 0.0, 0.0], [0.0, 0.0, 1.0, 0.0]], [[0.0, 1.0, 0.0, 0.0], [0.0, 0.0, 0.0, 1.0]], [[0.0, 0.0, 1.0, 0.0], [0.0, 0.0, 1.0, 0.0]], [[0.0, 1.0, 0.0, 0.0], [0.0, 1.0, 0.0, 0.0]]]}, {"children_left": [1, 2, 3, -1, -1, 6, 7, -1, -1, -1, 11, -1, -1], "children_right": [10, 5, 4, -1, -1, 9, 8, -1, -1, -1, 12, -1, -1], "feature": [5, 4, 5, -2, -2, 1, 3, -2, -2, -2, 0, -2, -2], "threshold": [40.07197570800781, 1.01114022731781, 24.733402252197266, -2.0, -2.0, 93.02054977416992, 0.47686612606048584, -2.0, -2.0, -2.0, 99.99195098876953, -2.0, -2.0], "value": [[[0.34705882352941175, 0.538235294117647, 0.11470588235294117, 0.0], [0.34705882352941175, 0.19264705882352942, 0.29191176470588237, 0.16838235294117648]], [[0.0, 0.8020304568527918, 0.19796954314720813, 0.0], [0.0, 0.33248730964467005, 0.3769035532994924, 0.2906091370558376]], [[0.0, 0.39768339768339767, 0.6023166023166023, 0.0], [0.0, 0.0, 1.0, 0.0]], [[0.0, 0.0, 1.0, 0.0], [0.0, 0.0, 1.0, 0.0]], [[0.0, 1.0, 0.0, 0.0], [0.0, 0.0, 1.0, 0.0]], [[0.0, 1.0, 0.0, 0.0], [0.0, 0.4952741020793951, 0.07183364839319471, 0.43289224952741023]], [[0.0, 1.0, 0.0, 0.0], [0.0, 0.0, 0.14232209737827714, 0.8576779026217228]], [[0.0, 1.0, 0.0, 0.0], [0.0, 0.0, 1.0, 0.0]], [[0.0, 1.0, 0.0, 0.0], [0.0, 0.0, 0.0, 1.0]], [[0.0, 1.0, 0.0, 0.0], [0.0, 1.0, 0.0, 0.0]], [[0.8251748251748252, 0.17482517482517482, 0.0, 0.0], [0.8251748251748252, 0.0, 0.17482517482517482, 0.0]], [[1.0, 0.0, 0.0, 0.0], [1.0, 0.0, 0.0, 0.0]], [[0.0, 1.0, 0.0, 0.0], [0.0, 0.0, 1.0, 0.0]]]}, {"children_left": [1, -1, 3, 4, 5, 6, -1, -1, 9, 10, -1, -1, 13, -1, -1, 16, 17, 18, -1, -1, -1, -1, 23, 24, 25, -1, 27, -1, -1, -1, 31, -1, -1], "children_right": [2, -1, 22, 15, 8, 7, -1, -1, 12, 11, -1, -1, 14, -1, -1, 21, 20, 19, -1, -1, -1, -1, 30, 29, 26, -1, 28, -1, -1, -1, 32, -1, -1], "feature": [0, -2, 4, 0, 5, 3, -2, -2, 0, 5, -2, -2, 4, -2, -2, 5, 3, 2, -2, -2, -2, -2, 2, 0, 2, -2, 1, -2, -2, -2, 3, -2, -2], "threshold": [99.99195098876953, -2.0, 1.1210509538650513, 120.31767272949219, 22.8566951751709, 0.477532759308815, -2.0, -2.0, 116.44951629638672, 25.49510383605957, -2.0, -2.0, 1.0231634974479675, -2.0, -2.0, 25.013195037841797, 0.5152098387479782, 37.39746284484863, -2.0, -2.0, -2.0, -2.0, 36.80008888244629, 125.45690155029297, 36.49020195007324, -2.0, 92.94004821777344, -2.0, -2.0, -2.0, 0.4843354672193527, -2.0, -2.0], "value": [[[0.34338235294117647, 0.5485294117647059, 0.10808823529411765, 0.0], [0.34338235294117647, 0.18235294117647058, 0.2889705882352941, 0.18529411764705883]], [[1.0, 0.0, 0.0, 0.0], [1.0, 0.0, 0.0, 0.0]], [[0.0, 0.8353863381858903, 0.16461366181410975, 0.0], [0.0, 0.2777155655095185, 0.4400895856662934, 0.2821948488241881]], [[0.0, 0.6297229219143576, 0.3702770780856423, 0.0], [0.0, 0.022670025188916875, 0.9546599496221663, 0.022670025188916875]], [[0.0, 1.0, 0.0, 0.0], [0.0, 0.03292181069958848, 0.9547325102880658, 0.012345679012345678]], [[0.0, 1.0, 0.0, 0.0], [0.0, 0.625, 0.0, 0.375]], [[0.0, 1.0, 0.0, 0.0], [0.0, 1.0, 0.0, 0.0]], [[0.0, 1.0, 0.0, 0.0], [0.0, 0.0, 0.0, 1.0]], [[0.0, 1.0, 0.0, 0.0], [0.0, 0.01276595744680851, 0.9872340425531915, 0.0]], [[0.0, 1.0, 0.0, 0.0], [0.0, 0.005208333333333333, 0.9947916666666666, 0.0]], [[0.0, 1.0, 0.0, 0.0], [0.0, 0.25, 0.75, 0.0]], [[0.0, 1.0, 0.0, 0.0], [0.0, 0.0, 1.0, 0.0]], [[0.0, 1.0, 0.0, 0.0], [0.0, 0.046511627906976744, 0.9534883720930233, 0.0]], [[0.0, 1.0, 0.0, 0.0], [0.0, 0.0, 1.0, 0.0]], [[0.0, 1.0, 0.0, 0.0], [0.0, 0.6666666666666666, 0.3333333333333333, 0.0]], [[0.0, 0.045454545454545456, 0.9545454545454546, 0.0], [0.0, 0.006493506493506494, 0.9545454545454546, 0.03896103896103896]], [[0.0, 0.013422818791946308, 0.9865771812080537, 0.0], [0.0, 0.006711409395973154, 0.9865771812080537, 0.006711409395973154]], [[0.0, 0.006756756756756757, 0.9932432432432432, 0.0], [0.0, 0.006756756756756757, 0.9932432432432432, 0.0]], [[0.0, 1.0, 0.0, 0.0], [0.0, 1.0, 0.0, 0.0]], [[0.0, 0.0, 1.0, 0.0], [0.0, 0.0, 1.0, 0.0]], [[0.0, 1.0, 0.0, 0.0], [0.0, 0.0, 0.0, 1.0]], [[0.0, 1.0, 0.0, 0.0], [0.0, 0.0, 0.0, 1.0]], [[0.0, 1.0, 0.0, 0.0], [0.0, 0.48185483870967744, 0.028225806451612902, 0.4899193548387097]], [[0.0, 1.0, 0.0, 0.0], [0.0, 0.8047138047138047, 0.0, 0.19528619528619529]], [[0.0, 1.0, 0.0, 0.0], [0.0, 0.8754578754578755, 0.0, 0.12454212454212454]], [[0.0, 1.0, 0.0, 0.0], [0.0, 1.0, 0.0, 0.0]], [[0.0, 1.0, 0.0, 0.0], [0.0, 0.711864406779661, 0.0, 0.288135593220339]], [[0.0, 1.0, 0.0, 0.0], [0.0, 0.0, 0.0, 1.0]], [[0.0, 1.0, 0.0, 0.0], [0.0, 1.0, 0.0, 0.0]], [[0.0, 1.0, 0.0, 0.0], [0.0, 0.0, 0.0, 1.0]], [[0.0, 1.0, 0.0, 0.0], [0.0, 0.0, 0.07035175879396985, 0.9296482412060302]], [[0.0, 1.0, 0.0, 0.0], [0.0, 0.0, 1.0, 0.0]], [[0.0, 1.0, 0.0, 0.0], [0.0, 0.0, 0.0, 1.0]]]}, {"children_left": [1, 2, 3, 4, 5, -1, 7, -1, -1, -1, -1, -1, 13, -1, 15, -1, 17, -1, -1], "children_right": [12, 11, 10, 9, 6, -1, 8, -1, -1, -1, -1, -1, 14, -1, 16, -1, 18, -1, -1], "feature": [4, 2, 3, 0, 5, -2, 1, -2, -2, -2, -2, -2, 1, -2, 0, -2, 1, -2, -2], "threshold": [1.1944436430931091, 38.016414642333984, 0.5042989701032639, 119.51861572265625, 20.832953453063965, -2.0, 93.56733322143555, -2.0, -2.0, -2.0, -2.0, -2.0, 91.9876480102539, -2.0, 100.0129280090332, -2.0, 93.00696563720703, -2.0, -2.0], "value": [[[0.34338235294117647, 0.5477941176470589, 0.10882352941176471, 0.0], [0.34338235294117647, 0.18529411764705883, 0.30220588235294116, 0.16911764705882354]], [[0.0, 0.6597701149425287, 0.34022988505747126, 0.0], [0.0, 0.02528735632183908, 0.9448275862068966, 0.029885057471264367]], [[0.0, 1.0, 0.0, 0.0], [0.0, 0.03832752613240418, 0.9163763066202091, 0.04529616724738676]], [[0.0, 1.0, 0.0, 0.0], [0.0, 0.040145985401459854, 0.9598540145985401, 0.0]], [[0.0, 1.0, 0.0, 0.0], [0.0, 0.018656716417910446, 0.9813432835820896, 0.0]], [[0.0, 1.0, 0.0, 0.0], [0.0, 1.0, 0.0, 0.0]], [[0.0, 1.0, 0.0, 0.0], [0.0, 0.007547169811320755, 0.9924528301886792, 0.0]], [[0.0, 1.0, 0.0, 0.0], [0.0, 0.0, 1.0, 0.0]], [[0.0, 1.0, 0.0, 0.0], [0.0, 1.0, 0.0, 0.0]], [[0.0, 1.0, 0.0, 0.0], [0.0, 1.0, 0.0, 0.0]], [[0.0, 1.0, 0.0, 0.0], [0.0, 0.0, 0.0, 1.0]], [[0.0, 0.0, 1.0, 0.0], [0.0, 0.0, 1.0, 0.0]], [[0.5048648648648648, 0.49513513513513513, 0.0, 0.0], [0.5048648648648648, 0.26054054054054054, 0.0, 0.23459459459459459]], [[0.0, 1.0, 0.0, 0.0], [0.0, 0.0, 0.0, 1.0]], [[0.6152832674571805, 0.3847167325428195, 0.0, 0.0], [0.6152832674571805, 0.31752305665349145, 0.0, 0.06719367588932806]], [[1.0, 0.0, 0.0, 0.0], [1.0, 0.0, 0.0, 0.0]], [[0.0, 1.0, 0.0, 0.0], [0.0, 0.8253424657534246, 0.0, 0.17465753424657535]], [[0.0, 1.0, 0.0, 0.0], [0.0, 0.0, 0.0, 1.0]], [[0.0, 1.0, 0.0, 0.0], [0.0, 1.0, 0.0, 0.0]]]}, {"children_left": [1, -1, 3, 4, 5, -1, -1, -1, -1], "children_right": [2, -1, 8, 7, 6, -1, -1, -1, -1], "feature": [0, -2, 3, 1, 5, -2, -2, -2, -2], "threshold": [99.99932861328125, -2.0, 0.5003795027732849, 93.0201416015625, 24.97629165649414, -2.0, -2.0, -2.0, -2.0], "value": [[[0.3301470588235294, 0.5477941176470589, 0.12205882352941176, 0.0], [0.3301470588235294, 0.1676470588235294, 0.31176470588235294, 0.19044117647058822]], [[1.0, 0.0, 0.0, 0.0], [1.0, 0.0, 0.0, 0.0]], [[0.0, 0.8177826564215148, 0.18221734357848518, 0.0], [0.0, 0.2502744237102086, 0.4654226125137212, 0.2843029637760702]], [[0.0, 0.745398773006135, 0.254601226993865, 0.0], [0.0, 0.3496932515337423, 0.6503067484662577, 0.0]], [[0.0, 0.6084905660377359, 0.3915094339622642, 0.0], [0.0, 0.0, 1.0, 0.0]], [[0.0, 0.0, 1.0, 0.0], [0.0, 0.0, 1.0, 0.0]], [[0.0, 1.0, 0.0, 0.0], [0.0, 0.0, 1.0, 0.0]], [[0.0, 1.0, 0.0, 0.0], [0.0, 1.0, 0.0, 0.0]], [[0.0, 1.0, 0.0, 0.0], [0.0, 0.0, 0.0, 1.0]]]}]}